digraph Tree {
node [shape=box, style="filled, rounded", color="black", fontname="helvetica"] ;
edge [fontname="helvetica"] ;
0 [label="cord_x <= 612.5\nentropy = 4.807\nsamples = 1145\nvalue = [40.893, 40.893, 40.893, 40.893, 40.893, 40.893, 40.893\n40.893, 40.893, 40.893, 40.893, 40.893, 40.893, 40.893\n40.893, 40.893, 40.893, 40.893, 40.893, 40.893, 40.893\n40.893, 40.893, 40.893, 40.893, 40.893, 40.893, 40.893]\nclass = 2", fillcolor="#ffffff"] ;
1 [label="cord_x <= 236.5\nentropy = 3.807\nsamples = 588\nvalue = [0.0, 0.0, 0.0, 40.893, 0.0, 40.893, 40.893, 0.0\n40.893, 0.0, 40.893, 40.893, 40.893, 40.893, 0.0, 0.0\n0.0, 40.893, 40.893, 40.893, 0.0, 0.0, 40.893, 0.0\n0.0, 40.893, 40.893, 0.0]\nclass = 7", fillcolor="#ffffff"] ;
0 -> 1 [labeldistance=2.5, labelangle=45, headlabel="True"] ;
2 [label="cord_y <= 84.0\nentropy = 2.807\nsamples = 257\nvalue = [0.0, 0.0, 0.0, 0.0, 0.0, 0.0, 0.0, 0.0, 40.893, 0.0\n40.893, 0.0, 0.0, 0.0, 0.0, 0.0, 0.0, 40.893, 40.893\n40.893, 0.0, 0.0, 40.893, 0.0, 0.0, 0.0, 40.893, 0.0]\nclass = 11", fillcolor="#ffffff"] ;
1 -> 2 ;
3 [label="cord_x <= 219.5\nentropy = 2.0\nsamples = 163\nvalue = [0.0, 0.0, 0.0, 0.0, 0.0, 0.0, 0.0, 0.0, 0.0, 0.0\n40.893, 0.0, 0.0, 0.0, 0.0, 0.0, 0.0, 40.893, 40.893\n0.0, 0.0, 0.0, 40.893, 0.0, 0.0, 0.0, 0.0, 0.0]\nclass = 11", fillcolor="#ffffff"] ;
2 -> 3 ;
4 [label="cord_x <= 180.5\nentropy = 1.581\nsamples = 131\nvalue = [0.0, 0.0, 0.0, 0.0, 0.0, 0.0, 0.0, 0.0, 0.0, 0.0\n37.437, 0.0, 0.0, 0.0, 0.0, 0.0, 0.0, 34.077, 40.893\n0.0, 0.0, 0.0, 0.0, 0.0, 0.0, 0.0, 0.0, 0.0]\nclass = 19", fillcolor="#f8f6fe"] ;
3 -> 4 ;
5 [label="entropy = 0.0\nsamples = 35\nvalue = [0.0, 0.0, 0.0, 0.0, 0.0, 0.0, 0.0, 0.0, 0.0, 0.0\n20.158, 0.0, 0.0, 0.0, 0.0, 0.0, 0.0, 0.0, 0.0, 0.0\n0.0, 0.0, 0.0, 0.0, 0.0, 0.0, 0.0, 0.0]\nclass = 11", fillcolor="#39e598"] ;
4 -> 5 ;
6 [label="entropy = 1.504\nsamples = 96\nvalue = [0.0, 0.0, 0.0, 0.0, 0.0, 0.0, 0.0, 0.0, 0.0, 0.0\n17.279, 0.0, 0.0, 0.0, 0.0, 0.0, 0.0, 34.077, 40.893\n0.0, 0.0, 0.0, 0.0, 0.0, 0.0, 0.0, 0.0, 0.0]\nclass = 19", fillcolor="#ede8fc"] ;
4 -> 6 ;
7 [label="cord_y <= 16.5\nentropy = 0.908\nsamples = 32\nvalue = [0.0, 0.0, 0.0, 0.0, 0.0, 0.0, 0.0, 0.0, 0.0, 0.0\n3.456, 0.0, 0.0, 0.0, 0.0, 0.0, 0.0, 6.815, 0.0, 0.0\n0.0, 0.0, 40.893, 0.0, 0.0, 0.0, 0.0, 0.0]\nclass = 23", fillcolor="#eb67dc"] ;
3 -> 7 ;
8 [label="entropy = 0.921\nsamples = 13\nvalue = [0.0, 0.0, 0.0, 0.0, 0.0, 0.0, 0.0, 0.0, 0.0, 0.0\n3.456, 0.0, 0.0, 0.0, 0.0, 0.0, 0.0, 6.815, 0.0, 0.0\n0.0, 0.0, 0.0, 0.0, 0.0, 0.0, 0.0, 0.0]\nclass = 18", fillcolor="#a19df2"] ;
7 -> 8 ;
9 [label="entropy = 0.0\nsamples = 19\nvalue = [0.0, 0.0, 0.0, 0.0, 0.0, 0.0, 0.0, 0.0, 0.0, 0.0\n0.0, 0.0, 0.0, 0.0, 0.0, 0.0, 0.0, 0.0, 0.0, 0.0\n0.0, 0.0, 40.893, 0.0, 0.0, 0.0, 0.0, 0.0]\nclass = 23", fillcolor="#e539d1"] ;
7 -> 9 ;
10 [label="cord_y <= 551.0\nentropy = 1.585\nsamples = 94\nvalue = [0.0, 0.0, 0.0, 0.0, 0.0, 0.0, 0.0, 0.0, 40.893, 0.0\n0.0, 0.0, 0.0, 0.0, 0.0, 0.0, 0.0, 0.0, 0.0, 40.893\n0.0, 0.0, 0.0, 0.0, 0.0, 0.0, 40.893, 0.0]\nclass = 20", fillcolor="#ffffff"] ;
2 -> 10 ;
11 [label="cord_y <= 234.0\nentropy = 1.0\nsamples = 70\nvalue = [0.0, 0.0, 0.0, 0.0, 0.0, 0.0, 0.0, 0.0, 40.893, 0.0\n0.0, 0.0, 0.0, 0.0, 0.0, 0.0, 0.0, 0.0, 0.0, 0.0\n0.0, 0.0, 0.0, 0.0, 0.0, 0.0, 40.893, 0.0]\nclass = 27", fillcolor="#ffffff"] ;
10 -> 11 ;
12 [label="entropy = 0.0\nsamples = 4\nvalue = [0.0, 0.0, 0.0, 0.0, 0.0, 0.0, 0.0, 0.0, 0.0, 0.0\n0.0, 0.0, 0.0, 0.0, 0.0, 0.0, 0.0, 0.0, 0.0, 0.0\n0.0, 0.0, 0.0, 0.0, 0.0, 0.0, 40.893, 0.0]\nclass = 27", fillcolor="#e5393c"] ;
11 -> 12 ;
13 [label="entropy = -0.0\nsamples = 66\nvalue = [0.0, 0.0, 0.0, 0.0, 0.0, 0.0, 0.0, 0.0, 40.893, 0.0\n0.0, 0.0, 0.0, 0.0, 0.0, 0.0, 0.0, 0.0, 0.0, 0.0\n0.0, 0.0, 0.0, 0.0, 0.0, 0.0, 0.0, 0.0]\nclass = 9", fillcolor="#39e54d"] ;
11 -> 13 ;
14 [label="cord_y <= 609.0\nentropy = 0.0\nsamples = 24\nvalue = [0.0, 0.0, 0.0, 0.0, 0.0, 0.0, 0.0, 0.0, 0.0, 0.0\n0.0, 0.0, 0.0, 0.0, 0.0, 0.0, 0.0, 0.0, 0.0, 40.893\n0.0, 0.0, 0.0, 0.0, 0.0, 0.0, 0.0, 0.0]\nclass = 20", fillcolor="#8c39e5"] ;
10 -> 14 ;
15 [label="entropy = 0.0\nsamples = 1\nvalue = [0.0, 0.0, 0.0, 0.0, 0.0, 0.0, 0.0, 0.0, 0.0, 0.0\n0.0, 0.0, 0.0, 0.0, 0.0, 0.0, 0.0, 0.0, 0.0, 1.704\n0.0, 0.0, 0.0, 0.0, 0.0, 0.0, 0.0, 0.0]\nclass = 20", fillcolor="#8c39e5"] ;
14 -> 15 ;
16 [label="entropy = 0.0\nsamples = 23\nvalue = [0.0, 0.0, 0.0, 0.0, 0.0, 0.0, 0.0, 0.0, 0.0, 0.0\n0.0, 0.0, 0.0, 0.0, 0.0, 0.0, 0.0, 0.0, 0.0, 39.189\n0.0, 0.0, 0.0, 0.0, 0.0, 0.0, 0.0, 0.0]\nclass = 20", fillcolor="#8c39e5"] ;
14 -> 16 ;
17 [label="cord_x <= 438.5\nentropy = 2.807\nsamples = 331\nvalue = [0.0, 0.0, 0.0, 40.893, 0.0, 40.893, 40.893, 0.0, 0.0\n0.0, 0.0, 40.893, 40.893, 40.893, 0.0, 0.0, 0.0, 0.0\n0.0, 0.0, 0.0, 0.0, 0.0, 0.0, 0.0, 40.893, 0.0, 0.0]\nclass = 7", fillcolor="#ffffff"] ;
1 -> 17 ;
18 [label="cord_y <= 226.5\nentropy = 1.585\nsamples = 67\nvalue = [0.0, 0.0, 0.0, 0.0, 0.0, 0.0, 0.0, 0.0, 0.0, 0.0\n0.0, 0.0, 40.893, 40.893, 0.0, 0.0, 0.0, 0.0, 0.0\n0.0, 0.0, 0.0, 0.0, 0.0, 0.0, 40.893, 0.0, 0.0]\nclass = 14", fillcolor="#ffffff"] ;
17 -> 18 ;
19 [label="cord_y <= 124.0\nentropy = 1.0\nsamples = 12\nvalue = [0.0, 0.0, 0.0, 0.0, 0.0, 0.0, 0.0, 0.0, 0.0, 0.0\n0.0, 0.0, 40.893, 0.0, 0.0, 0.0, 0.0, 0.0, 0.0, 0.0\n0.0, 0.0, 0.0, 0.0, 0.0, 40.893, 0.0, 0.0]\nclass = 13", fillcolor="#ffffff"] ;
18 -> 19 ;
20 [label="entropy = 0.0\nsamples = 9\nvalue = [0.0, 0.0, 0.0, 0.0, 0.0, 0.0, 0.0, 0.0, 0.0, 0.0\n0.0, 0.0, 0.0, 0.0, 0.0, 0.0, 0.0, 0.0, 0.0, 0.0\n0.0, 0.0, 0.0, 0.0, 0.0, 40.893, 0.0, 0.0]\nclass = 26", fillcolor="#e53961"] ;
19 -> 20 ;
21 [label="entropy = 0.0\nsamples = 3\nvalue = [0.0, 0.0, 0.0, 0.0, 0.0, 0.0, 0.0, 0.0, 0.0, 0.0\n0.0, 0.0, 40.893, 0.0, 0.0, 0.0, 0.0, 0.0, 0.0, 0.0\n0.0, 0.0, 0.0, 0.0, 0.0, 0.0, 0.0, 0.0]\nclass = 13", fillcolor="#39e5e2"] ;
19 -> 21 ;
22 [label="entropy = -0.0\nsamples = 55\nvalue = [0.0, 0.0, 0.0, 0.0, 0.0, 0.0, 0.0, 0.0, 0.0, 0.0\n0.0, 0.0, 0.0, 40.893, 0.0, 0.0, 0.0, 0.0, 0.0, 0.0\n0.0, 0.0, 0.0, 0.0, 0.0, 0.0, 0.0, 0.0]\nclass = 14", fillcolor="#39c3e5"] ;
18 -> 22 ;
23 [label="cord_y <= 218.0\nentropy = 2.0\nsamples = 264\nvalue = [0.0, 0.0, 0.0, 40.893, 0.0, 40.893, 40.893, 0.0, 0.0\n0.0, 0.0, 40.893, 0.0, 0.0, 0.0, 0.0, 0.0, 0.0, 0.0\n0.0, 0.0, 0.0, 0.0, 0.0, 0.0, 0.0, 0.0, 0.0]\nclass = 7", fillcolor="#ffffff"] ;
17 -> 23 ;
24 [label="cord_y <= 106.5\nentropy = 1.0\nsamples = 127\nvalue = [0.0, 0.0, 0.0, 0.0, 0.0, 0.0, 40.893, 0.0, 0.0, 0.0\n0.0, 40.893, 0.0, 0.0, 0.0, 0.0, 0.0, 0.0, 0.0, 0.0\n0.0, 0.0, 0.0, 0.0, 0.0, 0.0, 0.0, 0.0]\nclass = 7", fillcolor="#ffffff"] ;
23 -> 24 ;
25 [label="entropy = 0.0\nsamples = 64\nvalue = [0.0, 0.0, 0.0, 0.0, 0.0, 0.0, 0.0, 0.0, 0.0, 0.0\n0.0, 40.893, 0.0, 0.0, 0.0, 0.0, 0.0, 0.0, 0.0, 0.0\n0.0, 0.0, 0.0, 0.0, 0.0, 0.0, 0.0, 0.0]\nclass = 12", fillcolor="#39e5bd"] ;
24 -> 25 ;
26 [label="entropy = -0.0\nsamples = 63\nvalue = [0.0, 0.0, 0.0, 0.0, 0.0, 0.0, 40.893, 0.0, 0.0, 0.0\n0.0, 0.0, 0.0, 0.0, 0.0, 0.0, 0.0, 0.0, 0.0, 0.0\n0.0, 0.0, 0.0, 0.0, 0.0, 0.0, 0.0, 0.0]\nclass = 7", fillcolor="#6de539"] ;
24 -> 26 ;
27 [label="cord_x <= 490.5\nentropy = 1.0\nsamples = 137\nvalue = [0.0, 0.0, 0.0, 40.893, 0.0, 40.893, 0.0, 0.0, 0.0\n0.0, 0.0, 0.0, 0.0, 0.0, 0.0, 0.0, 0.0, 0.0, 0.0\n0.0, 0.0, 0.0, 0.0, 0.0, 0.0, 0.0, 0.0, 0.0]\nclass = 4", fillcolor="#ffffff"] ;
23 -> 27 ;
28 [label="entropy = 0.0\nsamples = 71\nvalue = [0.0, 0.0, 0.0, 40.893, 0.0, 0.0, 0.0, 0.0, 0.0, 0.0\n0.0, 0.0, 0.0, 0.0, 0.0, 0.0, 0.0, 0.0, 0.0, 0.0\n0.0, 0.0, 0.0, 0.0, 0.0, 0.0, 0.0, 0.0]\nclass = 4", fillcolor="#dce539"] ;
27 -> 28 ;
29 [label="entropy = -0.0\nsamples = 66\nvalue = [0.0, 0.0, 0.0, 0.0, 0.0, 40.893, 0.0, 0.0, 0.0, 0.0\n0.0, 0.0, 0.0, 0.0, 0.0, 0.0, 0.0, 0.0, 0.0, 0.0\n0.0, 0.0, 0.0, 0.0, 0.0, 0.0, 0.0, 0.0]\nclass = 6", fillcolor="#92e539"] ;
27 -> 29 ;
30 [label="cord_y <= 134.5\nentropy = 3.807\nsamples = 557\nvalue = [40.893, 40.893, 40.893, 0.0, 40.893, 0.0, 0.0, 40.893\n0.0, 40.893, 0.0, 0.0, 0.0, 0.0, 40.893, 40.893\n40.893, 0.0, 0.0, 0.0, 40.893, 40.893, 0.0, 40.893\n40.893, 0.0, 0.0, 40.893]\nclass = 2", fillcolor="#ffffff"] ;
0 -> 30 [labeldistance=2.5, labelangle=-45, headlabel="False"] ;
31 [label="cord_y <= 84.5\nentropy = 2.807\nsamples = 207\nvalue = [0.0, 0.0, 0.0, 0.0, 0.0, 0.0, 0.0, 40.893, 0.0\n40.893, 0.0, 0.0, 0.0, 0.0, 0.0, 40.893, 40.893, 0.0\n0.0, 0.0, 0.0, 40.893, 0.0, 40.893, 0.0, 0.0, 0.0\n40.893]\nclass = 17", fillcolor="#ffffff"] ;
30 -> 31 ;
32 [label="cord_y <= 62.0\nentropy = 1.547\nsamples = 53\nvalue = [0.0, 0.0, 0.0, 0.0, 0.0, 0.0, 0.0, 0.0, 0.0, 24.164\n0.0, 0.0, 0.0, 0.0, 0.0, 0.0, 0.0, 0.0, 0.0, 0.0\n0.0, 0.0, 0.0, 40.893, 0.0, 0.0, 0.0, 40.893]\nclass = 24", fillcolor="#ffffff"] ;
31 -> 32 ;
33 [label="entropy = 0.0\nsamples = 2\nvalue = [0.0, 0.0, 0.0, 0.0, 0.0, 0.0, 0.0, 0.0, 0.0, 0.0\n0.0, 0.0, 0.0, 0.0, 0.0, 0.0, 0.0, 0.0, 0.0, 0.0\n0.0, 0.0, 0.0, 0.0, 0.0, 0.0, 0.0, 40.893]\nclass = 28", fillcolor="#e55b39"] ;
32 -> 33 ;
34 [label="cord_x <= 777.5\nentropy = 0.952\nsamples = 51\nvalue = [0.0, 0.0, 0.0, 0.0, 0.0, 0.0, 0.0, 0.0, 0.0, 24.164\n0.0, 0.0, 0.0, 0.0, 0.0, 0.0, 0.0, 0.0, 0.0, 0.0\n0.0, 0.0, 0.0, 40.893, 0.0, 0.0, 0.0, 0.0]\nclass = 24", fillcolor="#f4aedd"] ;
32 -> 34 ;
35 [label="entropy = 0.0\nsamples = 39\nvalue = [0.0, 0.0, 0.0, 0.0, 0.0, 0.0, 0.0, 0.0, 0.0, 24.164\n0.0, 0.0, 0.0, 0.0, 0.0, 0.0, 0.0, 0.0, 0.0, 0.0\n0.0, 0.0, 0.0, 0.0, 0.0, 0.0, 0.0, 0.0]\nclass = 10", fillcolor="#39e572"] ;
34 -> 35 ;
36 [label="entropy = 0.0\nsamples = 12\nvalue = [0.0, 0.0, 0.0, 0.0, 0.0, 0.0, 0.0, 0.0, 0.0, 0.0\n0.0, 0.0, 0.0, 0.0, 0.0, 0.0, 0.0, 0.0, 0.0, 0.0\n0.0, 0.0, 0.0, 40.893, 0.0, 0.0, 0.0, 0.0]\nclass = 24", fillcolor="#e539ac"] ;
34 -> 36 ;
37 [label="cord_y <= 90.5\nentropy = 2.26\nsamples = 154\nvalue = [0.0, 0.0, 0.0, 0.0, 0.0, 0.0, 0.0, 40.893, 0.0\n16.729, 0.0, 0.0, 0.0, 0.0, 0.0, 40.893, 40.893, 0.0\n0.0, 0.0, 0.0, 40.893, 0.0, 0.0, 0.0, 0.0, 0.0, 0.0]\nclass = 17", fillcolor="#ffffff"] ;
31 -> 37 ;
38 [label="cord_x <= 769.5\nentropy = 1.401\nsamples = 17\nvalue = [0.0, 0.0, 0.0, 0.0, 0.0, 0.0, 0.0, 3.361, 0.0, 3.718\n0.0, 0.0, 0.0, 0.0, 0.0, 40.893, 0.0, 0.0, 0.0, 0.0\n0.0, 40.893, 0.0, 0.0, 0.0, 0.0, 0.0, 0.0]\nclass = 16", fillcolor="#ffffff"] ;
37 -> 38 ;
39 [label="entropy = 0.414\nsamples = 10\nvalue = [0.0, 0.0, 0.0, 0.0, 0.0, 0.0, 0.0, 0.0, 0.0, 3.718\n0.0, 0.0, 0.0, 0.0, 0.0, 40.893, 0.0, 0.0, 0.0, 0.0\n0.0, 0.0, 0.0, 0.0, 0.0, 0.0, 0.0, 0.0]\nclass = 16", fillcolor="#4b87e7"] ;
38 -> 39 ;
40 [label="entropy = 0.388\nsamples = 7\nvalue = [0.0, 0.0, 0.0, 0.0, 0.0, 0.0, 0.0, 3.361, 0.0, 0.0\n0.0, 0.0, 0.0, 0.0, 0.0, 0.0, 0.0, 0.0, 0.0, 0.0\n0.0, 40.893, 0.0, 0.0, 0.0, 0.0, 0.0, 0.0]\nclass = 22", fillcolor="#da49e7"] ;
38 -> 40 ;
41 [label="cord_y <= 107.5\nentropy = 1.447\nsamples = 137\nvalue = [0.0, 0.0, 0.0, 0.0, 0.0, 0.0, 0.0, 37.532, 0.0\n13.011, 0.0, 0.0, 0.0, 0.0, 0.0, 0.0, 40.893, 0.0\n0.0, 0.0, 0.0, 0.0, 0.0, 0.0, 0.0, 0.0, 0.0, 0.0]\nclass = 17", fillcolor="#f3f4fd"] ;
37 -> 41 ;
42 [label="entropy = 1.339\nsamples = 68\nvalue = [0.0, 0.0, 0.0, 0.0, 0.0, 0.0, 0.0, 10.643, 0.0\n8.055, 0.0, 0.0, 0.0, 0.0, 0.0, 0.0, 30.044, 0.0\n0.0, 0.0, 0.0, 0.0, 0.0, 0.0, 0.0, 0.0, 0.0, 0.0]\nclass = 17", fillcolor="#9aa9f2"] ;
41 -> 42 ;
43 [label="entropy = 1.283\nsamples = 69\nvalue = [0.0, 0.0, 0.0, 0.0, 0.0, 0.0, 0.0, 26.888, 0.0\n4.957, 0.0, 0.0, 0.0, 0.0, 0.0, 0.0, 10.849, 0.0\n0.0, 0.0, 0.0, 0.0, 0.0, 0.0, 0.0, 0.0, 0.0, 0.0]\nclass = 8", fillcolor="#a2f29b"] ;
41 -> 43 ;
44 [label="cord_y <= 494.5\nentropy = 2.807\nsamples = 350\nvalue = [40.893, 40.893, 40.893, 0.0, 40.893, 0.0, 0.0, 0.0\n0.0, 0.0, 0.0, 0.0, 0.0, 0.0, 40.893, 0.0, 0.0, 0.0\n0.0, 0.0, 40.893, 0.0, 0.0, 0.0, 40.893, 0.0, 0.0\n0.0]\nclass = 2", fillcolor="#ffffff"] ;
30 -> 44 ;
45 [label="cord_x <= 1126.0\nentropy = 2.0\nsamples = 248\nvalue = [40.893, 40.893, 0.0, 0.0, 40.893, 0.0, 0.0, 0.0, 0.0\n0.0, 0.0, 0.0, 0.0, 0.0, 40.893, 0.0, 0.0, 0.0, 0.0\n0.0, 0.0, 0.0, 0.0, 0.0, 0.0, 0.0, 0.0, 0.0]\nclass = 2", fillcolor="#ffffff"] ;
44 -> 45 ;
46 [label="cord_y <= 367.5\nentropy = 1.0\nsamples = 129\nvalue = [40.893, 40.893, 0.0, 0.0, 0.0, 0.0, 0.0, 0.0, 0.0\n0.0, 0.0, 0.0, 0.0, 0.0, 0.0, 0.0, 0.0, 0.0, 0.0\n0.0, 0.0, 0.0, 0.0, 0.0, 0.0, 0.0, 0.0, 0.0]\nclass = 2", fillcolor="#ffffff"] ;
45 -> 46 ;
47 [label="entropy = 0.0\nsamples = 48\nvalue = [0.0, 31.156, 0.0, 0.0, 0.0, 0.0, 0.0, 0.0, 0.0, 0.0\n0.0, 0.0, 0.0, 0.0, 0.0, 0.0, 0.0, 0.0, 0.0, 0.0\n0.0, 0.0, 0.0, 0.0, 0.0, 0.0, 0.0, 0.0]\nclass = 2", fillcolor="#e5a339"] ;
46 -> 47 ;
48 [label="entropy = 0.706\nsamples = 81\nvalue = [40.893, 9.736, 0.0, 0.0, 0.0, 0.0, 0.0, 0.0, 0.0\n0.0, 0.0, 0.0, 0.0, 0.0, 0.0, 0.0, 0.0, 0.0, 0.0\n0.0, 0.0, 0.0, 0.0, 0.0, 0.0, 0.0, 0.0, 0.0]\nclass = 1", fillcolor="#eb9f68"] ;
46 -> 48 ;
49 [label="cord_y <= 297.5\nentropy = 1.0\nsamples = 119\nvalue = [0.0, 0.0, 0.0, 0.0, 40.893, 0.0, 0.0, 0.0, 0.0, 0.0\n0.0, 0.0, 0.0, 0.0, 40.893, 0.0, 0.0, 0.0, 0.0, 0.0\n0.0, 0.0, 0.0, 0.0, 0.0, 0.0, 0.0, 0.0]\nclass = 15", fillcolor="#ffffff"] ;
45 -> 49 ;
50 [label="entropy = -0.0\nsamples = 67\nvalue = [0.0, 0.0, 0.0, 0.0, 40.893, 0.0, 0.0, 0.0, 0.0, 0.0\n0.0, 0.0, 0.0, 0.0, 0.0, 0.0, 0.0, 0.0, 0.0, 0.0\n0.0, 0.0, 0.0, 0.0, 0.0, 0.0, 0.0, 0.0]\nclass = 5", fillcolor="#b7e539"] ;
49 -> 50 ;
51 [label="entropy = -0.0\nsamples = 52\nvalue = [0.0, 0.0, 0.0, 0.0, 0.0, 0.0, 0.0, 0.0, 0.0, 0.0\n0.0, 0.0, 0.0, 0.0, 40.893, 0.0, 0.0, 0.0, 0.0, 0.0\n0.0, 0.0, 0.0, 0.0, 0.0, 0.0, 0.0, 0.0]\nclass = 15", fillcolor="#399de5"] ;
49 -> 51 ;
52 [label="cord_x <= 808.0\nentropy = 1.585\nsamples = 102\nvalue = [0.0, 0.0, 40.893, 0.0, 0.0, 0.0, 0.0, 0.0, 0.0, 0.0\n0.0, 0.0, 0.0, 0.0, 0.0, 0.0, 0.0, 0.0, 0.0, 0.0\n40.893, 0.0, 0.0, 0.0, 40.893, 0.0, 0.0, 0.0]\nclass = 21", fillcolor="#ffffff"] ;
44 -> 52 ;
53 [label="cord_x <= 731.0\nentropy = 1.0\nsamples = 78\nvalue = [0.0, 0.0, 40.893, 0.0, 0.0, 0.0, 0.0, 0.0, 0.0, 0.0\n0.0, 0.0, 0.0, 0.0, 0.0, 0.0, 0.0, 0.0, 0.0, 0.0\n0.0, 0.0, 0.0, 0.0, 40.893, 0.0, 0.0, 0.0]\nclass = 25", fillcolor="#ffffff"] ;
52 -> 53 ;
54 [label="entropy = 0.0\nsamples = 11\nvalue = [0.0, 0.0, 0.0, 0.0, 0.0, 0.0, 0.0, 0.0, 0.0, 0.0\n0.0, 0.0, 0.0, 0.0, 0.0, 0.0, 0.0, 0.0, 0.0, 0.0\n0.0, 0.0, 0.0, 0.0, 40.893, 0.0, 0.0, 0.0]\nclass = 25", fillcolor="#e53986"] ;
53 -> 54 ;
55 [label="entropy = -0.0\nsamples = 67\nvalue = [0.0, 0.0, 40.893, 0.0, 0.0, 0.0, 0.0, 0.0, 0.0, 0.0\n0.0, 0.0, 0.0, 0.0, 0.0, 0.0, 0.0, 0.0, 0.0, 0.0\n0.0, 0.0, 0.0, 0.0, 0.0, 0.0, 0.0, 0.0]\nclass = 3", fillcolor="#e5c839"] ;
53 -> 55 ;
56 [label="cord_x <= 822.0\nentropy = 0.0\nsamples = 24\nvalue = [0.0, 0.0, 0.0, 0.0, 0.0, 0.0, 0.0, 0.0, 0.0, 0.0\n0.0, 0.0, 0.0, 0.0, 0.0, 0.0, 0.0, 0.0, 0.0, 0.0\n40.893, 0.0, 0.0, 0.0, 0.0, 0.0, 0.0, 0.0]\nclass = 21", fillcolor="#b139e5"] ;
52 -> 56 ;
57 [label="entropy = 0.0\nsamples = 1\nvalue = [0.0, 0.0, 0.0, 0.0, 0.0, 0.0, 0.0, 0.0, 0.0, 0.0\n0.0, 0.0, 0.0, 0.0, 0.0, 0.0, 0.0, 0.0, 0.0, 0.0\n1.704, 0.0, 0.0, 0.0, 0.0, 0.0, 0.0, 0.0]\nclass = 21", fillcolor="#b139e5"] ;
56 -> 57 ;
58 [label="entropy = 0.0\nsamples = 23\nvalue = [0.0, 0.0, 0.0, 0.0, 0.0, 0.0, 0.0, 0.0, 0.0, 0.0\n0.0, 0.0, 0.0, 0.0, 0.0, 0.0, 0.0, 0.0, 0.0, 0.0\n39.189, 0.0, 0.0, 0.0, 0.0, 0.0, 0.0, 0.0]\nclass = 21", fillcolor="#b139e5"] ;
56 -> 58 ;
}